<?xml version="1.0"?>
<opencv_storage>
<cascade>
  <stageType>BOOST</stageType>
  <featureType>HAAR</featureType>
  <height>24</height>
  <width>24</width>
  <stageParams>
    <boostType>GAB</boostType>
    <minHitRate>9.9500000476837158e-01</minHitRate>
    <maxFalseAlarm>5.0000000000000000e-01</maxFalseAlarm>
    <weightTrimRate>9.4999999999999996e-01</weightTrimRate>
    <maxDepth>1</maxDepth>
    <maxWeakCount>100</maxWeakCount></stageParams>
  <featureParams>
    <maxCatCount>0</maxCatCount>
    <featSize>1</featSize>
    <mode>BASIC</mode></featureParams>
  <stageNum>12</stageNum>
  <stages>
    <!-- stage 0 -->
    <_>
      <maxWeakCount>7</maxWeakCount>
      <stageThreshold>-1.4773548841476440e+00</stageThreshold>
      <weakClassifiers>
        <_>
          <internalNodes>
            0 -1 108 3.6936285905539989e-03</internalNodes>
          <leafValues>
            -8.2489448785781860e-01 4.2553190141916275e-02</leafValues></_>
        <_>
          <internalNodes>
            0 -1 5 -8.7725266814231873e-02</internalNodes>
          <leafValues>
            3.6325770616531372e-01 -6.5096575021743774e-01</leafValues></_>
        <_>
          <internalNodes>
            0 -1 56 -2.0165983587503433e-03</internalNodes>
          <leafValues>
            4.3006095290184021e-01 -4.4403034448623657e-01</leafValues></_>
        <_>
          <internalNodes>
            0 -1 86 -1.5549036860466003e-01</internalNodes>
          <leafValues>
            4.7007873654365540e-01 -3.1568598747253418e-01</leafValues></_>
        <_>
          <internalNodes>
            0 -1 158 3.4100827760994434e-03</internalNodes>
          <leafValues>
            -2.9611283540725708e-01 5.2890777587890625e-01</leafValues></_>
        <_>
          <internalNodes>
            0 -1 13 -7.2730198735371232e-04</internalNodes>
          <leafValues>
            5.5276685953140259e-01 -2.4836491048336029e-01</leafValues></_>
        <_>
          <internalNodes>
            0 -1 184 4.9831755459308624e-03</internalNodes>
          <leafValues>
            -2.4498051404953003e-01 4.7767880558967590e-01</leafValues></_></weakClassifiers></_>
    <!-- stage 1 -->
    <_>
      <maxWeakCount>9</maxWeakCount>
      <stageThreshold>-1.4529614448547363e+00</stageThreshold>
      <weakClassifiers>
        <_>
          <internalNodes>
            0 -1 82 2.2331107407808304e-02</internalNodes>
          <leafValues>
            -8.0151027441024780e-01 -8.9108914136886597e-02</leafValues></_>
        <_>
          <internalNodes>
            0 -1 157 -5.8961965143680573e-02</internalNodes>
          <leafValues>
            3.7633788585662842e-01 -4.1599047183990479e-01</leafValues></_>
        <_>
          <internalNodes>
            0 -1 38 -4.1868247091770172e-02</internalNodes>
          <leafValues>
            3.6586228013038635e-01 -3.6300346255302429e-01</leafValues></_>
        <_>
          <internalNodes>
            0 -1 176 1.6242481768131256e-02</internalNodes>
          <leafValues>
            -2.7700775861740112e-01 3.7966731190681458e-01</leafValues></_>
        <_>
          <internalNodes>
            0 -1 36 2.3438323289155960e-02</internalNodes>
          <leafValues>
            -1.6118557751178741e-01 5.4813903570175171e-01</leafValues></_>
        <_>
          <internalNodes>
            0 -1 68 7.4190869927406311e-03</internalNodes>
          <leafValues>
            1.0675293207168579e-01 -8.1316649913787842e-01</leafValues></_>
        <_>
          <internalNodes>
            0 -1 162 -7.8643690794706345e-03</internalNodes>
          <leafValues>
            3.6170631647109985e-01 -2.2023586928844452e-01</leafValues></_>
        <_>
          <internalNodes>
            0 -1 97 6.6876942291855812e-03</internalNodes>
          <leafValues>
            -1.4861477911472321e-01 5.2950274944305420e-01</leafValues></_>
        <_>
          <internalNodes>
            0 -1 32 1.1172894155606627e-03</internalNodes>
          <leafValues>
            1.1850917339324951e-01 -8.0266714096069336e-01</leafValues></_></weakClassifiers></_>
    <!-- stage 2 -->
    <_>
      <maxWeakCount>11</maxWeakCount>
      <stageThreshold>-1.2228505611419678e+00</stageThreshold>
      <weakClassifiers>
        <_>
          <internalNodes>
            0 -1 81 3.8455158472061157e-02</internalNodes>
          <leafValues>
            -8.3771431446075439e-01 -1.0422535240650177e-01</leafValues></_>
        <_>
          <internalNodes>
            0 -1 65 -1.3844022154808044e-01</internalNodes>
          <leafValues>
            1.8547216057777405e-01 -4.7113212943077087e-01</leafValues></_>
        <_>
          <internalNodes>
            0 -1 29 3.0464974697679281e-03</internalNodes>
          <leafValues>
            -3.4753960371017456e-01 2.5660246610641479e-01</leafValues></_>
        <_>
          <internalNodes>
            0 -1 160 6.5874606370925903e-03</internalNodes>
          <leafValues>
            -2.7495092153549194e-01 3.0497965216636658e-01</leafValues></_>
        <_>
          <internalNodes>
            0 -1 133 -1.2253712117671967e-01</internalNodes>
          <leafValues>
            7.9363423585891724e-01 -6.2555082142353058e-02</leafValues></_>
        <_>
          <internalNodes>
            0 -1 34 -1.1189030483365059e-02</internalNodes>
          <leafValues>
            3.9321342110633850e-01 -1.9518253207206726e-01</leafValues></_>
        <_>
          <internalNodes>
            0 -1 46 -2.9699871083721519e-04</internalNodes>
          <leafValues>
            -5.0527113676071167e-01 1.5512630343437195e-01</leafValues></_>
        <_>
          <internalNodes>
            0 -1 117 -6.8386537022888660e-03</internalNodes>
          <leafValues>
            4.6082505583763123e-01 -1.9152233004570007e-01</leafValues></_>
        <_>
          <internalNodes>
            0 -1 45 6.7462725564837456e-04</internalNodes>
          <leafValues>
            2.1638058125972748e-01 -4.6052959561347961e-01</leafValues></_>
        <_>
          <internalNodes>
            0 -1 183 1.2346765026450157e-02</internalNodes>
          <leafValues>
            -2.0312602818012238e-01 4.2615079879760742e-01</leafValues></_>
        <_>
          <internalNodes>
            0 -1 177 -2.8663320466876030e-02</internalNodes>
          <leafValues>
            7.0522564649581909e-01 -1.3132768869400024e-01</leafValues></_></weakClassifiers></_>
    <!-- stage 3 -->
    <_>
      <maxWeakCount>14</maxWeakCount>
      <stageThreshold>-1.4550378322601318e+00</stageThreshold>
      <weakClassifiers>
        <_>
          <internalNodes>
            0 -1 151 6.5911859273910522e-02</internalNodes>
          <leafValues>
            -7.5137513875961304e-01 -2.7102804183959961e-01</leafValues></_>
        <_>
          <internalNodes>
            0 -1 93 -2.0210985094308853e-03</internalNodes>
          <leafValues>
            1.5891255438327789e-01 -4.0940567851066589e-01</leafValues></_>
        <_>
          <internalNodes>
            0 -1 40 -9.5692891627550125e-03</internalNodes>
          <leafValues>
            1.8023705482482910e-01 -4.3109092116355896e-01</leafValues></_>
        <_>
          <internalNodes>
            0 -1 143 -4.4864388182759285e-03</internalNodes>
          <leafValues>
            4.6964365243911743e-01 -1.6452987492084503e-01</leafValues></_>
        <_>
          <internalNodes>
            0 -1 150 -1.3348021311685443e-03</internalNodes>
          <leafValues>
            3.5439082980155945e-01 -1.6702966392040253e-01</leafValues></_>
        <_>
          <internalNodes>
            0 -1 48 -4.8478987812995911e-01</internalNodes>
          <leafValues>
            8.2936996221542358e-01 -9.4705894589424133e-02</leafValues></_>
        <_>
          <internalNodes>
            0 -1 95 -5.4095583036541939e-03</internalNodes>
          <leafValues>
            5.4263460636138916e-01 -1.0595082491636276e-01</leafValues></_>
        <_>
          <internalNodes>
            0 -1 73 -3.9048168808221817e-02</internalNodes>
          <leafValues>
            3.6728757619857788e-01 -1.7725101113319397e-01</leafValues></_>
        <_>
          <internalNodes>
            0 -1 79 2.8712291270494461e-02</internalNodes>
          <leafValues>
            -1.0486050695180893e-01 6.1415803432464600e-01</leafValues></_>
        <_>
          <internalNodes>
            0 -1 18 1.7519670724868774e-01</internalNodes>
          <leafValues>
            -1.9197593629360199e-01 3.8773274421691895e-01</leafValues></_>
        <_>
          <internalNodes>
            0 -1 194 9.5049738883972168e-03</internalNodes>
          <leafValues>
            9.6103250980377197e-02 -8.6040401458740234e-01</leafValues></_>
        <_>
          <internalNodes>
            0 -1 47 -2.9030817747116089e-01</internalNodes>
          <leafValues>
            7.2408366203308105e-01 -1.2293213605880737e-01</leafValues></_>
        <_>
          <internalNodes>
            0 -1 135 3.9653871208429337e-03</internalNodes>
          <leafValues>
            -1.8564835190773010e-01 3.9216867089271545e-01</leafValues></_>
        <_>
          <internalNodes>
            0 -1 156 2.2676333785057068e-02</internalNodes>
          <leafValues>
            -3.1115859746932983e-01 2.3136761784553528e-01</leafValues></_></weakClassifiers></_>
    <!-- stage 4 -->
    <_>
      <maxWeakCount>14</maxWeakCount>
      <stageThreshold>-1.3475075960159302e+00</stageThreshold>
      <weakClassifiers>
        <_>
          <internalNodes>
            0 -1 106 6.5670749172568321e-03</internalNodes>
          <leafValues>
            -7.3212486505508423e-01 -1.8143460154533386e-01</leafValues></_>
        <_>
          <internalNodes>
            0 -1 57 -4.0018129348754883e-01</internalNodes>
          <leafValues>
            3.1803372502326965e-01 -3.3555999398231506e-01</leafValues></_>
        <_>
          <internalNodes>
            0 -1 31 1.7757257446646690e-02</internalNodes>
          <leafValues>
            1.1212160438299179e-01 -5.9291332960128784e-01</leafValues></_>
        <_>
          <internalNodes>
            0 -1 137 1.4243047684431076e-02</internalNodes>
          <leafValues>
            -2.0187810063362122e-01 3.1332597136497498e-01</leafValues></_>
        <_>
          <internalNodes>
            0 -1 58 -2.3764432407915592e-03</internalNodes>
          <leafValues>
            3.1639117002487183e-01 -1.9192364811897278e-01</leafValues></_>
        <_>
          <internalNodes>
            0 -1 17 -1.2769269524142146e-03</internalNodes>
          <leafValues>
            2.7023175358772278e-01 -2.2258758544921875e-01</leafValues></_>
        <_>
          <internalNodes>
            0 -1 9 -7.1098767220973969e-03</internalNodes>
          <leafValues>
            3.8528600335121155e-01 -1.7838662862777710e-01</leafValues></_>
        <_>
          <internalNodes>
            0 -1 189 2.2334945970214903e-04</internalNodes>
          <leafValues>
            1.3228929042816162e-01 -4.7305285930633545e-01</leafValues></_>
        <_>
          <internalNodes>
            0 -1 103 2.2124058887129650e-05</internalNodes>
          <leafValues>
            -2.2502291202545166e-01 2.5977048277854919e-01</leafValues></_>
        <_>
          <internalNodes>
            0 -1 195 -7.7790371142327785e-04</internalNodes>
          <leafValues>
            -5.4189068078994751e-01 1.2124695628881454e-01</leafValues></_>
        <_>
          <internalNodes>
            0 -1 33 -2.1685680840164423e-03</internalNodes>
          <leafValues>
            3.1581026315689087e-01 -2.0237103104591370e-01</leafValues></_>
        <_>
          <internalNodes>
            0 -1 139 -9.2613212764263153e-03</internalNodes>
          <leafValues>
            2.3691275715827942e-01 -2.6447674632072449e-01</leafValues></_>
        <_>
          <internalNodes>
            0 -1 69 6.4437265973538160e-04</internalNodes>
          <leafValues>
            -1.4325809478759766e-01 5.0027149915695190e-01</leafValues></_>
        <_>
          <internalNodes>
            0 -1 44 -1.2719139340333641e-04</internalNodes>
          <leafValues>
            -3.9755073189735413e-01 1.7038019001483917e-01</leafValues></_></weakClassifiers></_>
    <!-- stage 5 -->
    <_>
      <maxWeakCount>17</maxWeakCount>
      <stageThreshold>-1.3502490520477295e+00</stageThreshold>
      <weakClassifiers>
        <_>
          <internalNodes>
            0 -1 8 -3.7143290042877197e-01</internalNodes>
          <leafValues>
            -2.9712459444999695e-01 -7.3827701807022095e-01</leafValues></_>
        <_>
          <internalNodes>
            0 -1 80 3.3321522176265717e-02</internalNodes>
          <leafValues>
            -3.2964035868644714e-01 2.2511832416057587e-01</leafValues></_>
        <_>
          <internalNodes>
            0 -1 4 9.6899358322843909e-04</internalNodes>
          <leafValues>
            8.8191136717796326e-02 -7.0233821868896484e-01</leafValues></_>
        <_>
          <internalNodes>
            0 -1 15 -1.0814695060253143e-01</internalNodes>
          <leafValues>
            -7.3200458288192749e-01 9.3601368367671967e-02</leafValues></_>
        <_>
          <internalNodes>
            0 -1 0 -1.1292153503745794e-03</internalNodes>
          <leafValues>
            -6.1249476671218872e-01 8.6839206516742706e-02</leafValues></_>
        <_>
          <internalNodes>
            0 -1 62 8.4596835076808929e-03</internalNodes>
          <leafValues>
            6.3760116696357727e-02 -6.5219050645828247e-01</leafValues></_>
        <_>
          <internalNodes>
            0 -1 72 2.1725371479988098e-02</internalNodes>
          <leafValues>
            -1.4067691564559937e-01 4.4480124115943909e-01</leafValues></_>
        <_>
          <internalNodes>
            0 -1 3 -5.1882959902286530e-02</internalNodes>
          <leafValues>
            3.3774730563163757e-01 -1.6240482032299042e-01</leafValues></_>
        <_>
          <internalNodes>
            0 -1 118 2.2220024839043617e-03</internalNodes>
          <leafValues>
            -1.3693584501743317e-01 3.7191507220268250e-01</leafValues></_>
        <_>
          <internalNodes>
            0 -1 119 -4.2386264540255070e-03</internalNodes>
          <leafValues>
            4.2008382081985474e-01 -1.3091394305229187e-01</leafValues></_>
        <_>
          <internalNodes>
            0 -1 7 3.9260022458620369e-04</internalNodes>
          <leafValues>
            1.7027500271797180e-01 -3.3828571438789368e-01</leafValues></_>
        <_>
          <internalNodes>
            0 -1 94 -1.4952802658081055e-01</internalNodes>
          <leafValues>
            8.0216741561889648e-01 -7.4533119797706604e-02</leafValues></_>
        <_>
          <internalNodes>
            0 -1 88 1.4018962159752846e-02</internalNodes>
          <leafValues>
            -9.6045024693012238e-02 5.4724258184432983e-01</leafValues></_>
        <_>
          <internalNodes>
            0 -1 185 -1.1541564890649170e-04</internalNodes>
          <leafValues>
            -3.3284354209899902e-01 1.8157349526882172e-01</leafValues></_>
        <_>
          <internalNodes>
            0 -1 149 -2.2883443161845207e-03</internalNodes>
          <leafValues>
            2.2992898523807526e-01 -2.9226845502853394e-01</leafValues></_>
        <_>
          <internalNodes>
            0 -1 153 5.5952183902263641e-03</internalNodes>
          <leafValues>
            -1.5745684504508972e-01 4.0488454699516296e-01</leafValues></_>
        <_>
          <internalNodes>
            0 -1 170 -3.3558517694473267e-02</internalNodes>
          <leafValues>
            3.3234480023384094e-01 -2.3189325630664825e-01</leafValues></_></weakClassifiers></_>
    <!-- stage 6 -->
    <_>
      <maxWeakCount>21</maxWeakCount>
      <stageThreshold>-1.2815632820129395e+00</stageThreshold>
      <weakClassifiers>
        <_>
          <internalNodes>
            0 -1 6 -7.0392861962318420e-02</internalNodes>
          <leafValues>
            -1.7977528274059296e-01 -7.0152091979980469e-01</leafValues></_>
        <_>
          <internalNodes>
            0 -1 108 9.3437992036342621e-03</internalNodes>
          <leafValues>
            -2.8162655234336853e-01 2.6306375861167908e-01</leafValues></_>
        <_>
          <internalNodes>
            0 -1 182 -3.2907660352066159e-04</internalNodes>
          <leafValues>
            -4.7065424919128418e-01 1.0869326442480087e-01</leafValues></_>
        <_>
          <internalNodes>
            0 -1 165 -4.6064164489507675e-03</internalNodes>
          <leafValues>
            3.5271069407463074e-01 -1.3493317365646362e-01</leafValues></_>
        <_>
          <internalNodes>
            0 -1 77 6.5006718039512634e-02</internalNodes>
          <leafValues>
            1.0018209367990494e-01 -9.5374989509582520e-01</leafValues></_>
        <_>
          <internalNodes>
            0 -1 179 1.5098333358764648e-02</internalNodes>
          <leafValues>
            -1.8453848361968994e-01 2.7382186055183411e-01</leafValues></_>
        <_>
          <internalNodes>
            0 -1 112 -4.5736627653241158e-03</internalNodes>
          <leafValues>
            -7.6120460033416748e-01 5.9543929994106293e-02</leafValues></_>
        <_>
          <internalNodes>
            0 -1 188 -2.3575052618980408e-03</internalNodes>
          <leafValues>
            -5.8840328454971313e-01 7.6238609850406647e-02</leafValues></_>
        <_>
          <internalNodes>
            0 -1 125 1.0570834856480360e-03</internalNodes>
          <leafValues>
            -1.3210168480873108e-01 4.2088952660560608e-01</leafValues></_>
        <_>
          <internalNodes>
            0 -1 109 -1.2353240890661255e-05</internalNodes>
          <leafValues>
            1.8149945139884949e-01 -2.7848181128501892e-01</leafValues></_>
        <_>
          <internalNodes>
            0 -1 30 1.7011983320116997e-02</internalNodes>
          <leafValues>
            5.2182469516992569e-02 -9.1761362552642822e-01</leafValues></_>
        <_>
          <internalNodes>
            0 -1 113 1.4741038903594017e-03</internalNodes>
          <leafValues>
            -1.4903892576694489e-01 3.7897264957427979e-01</leafValues></_>
        <_>
          <internalNodes>
            0 -1 76 1.2787610292434692e-02</internalNodes>
          <leafValues>
            1.2517212331295013e-01 -4.0884554386138916e-01</leafValues></_>
        <_>
          <internalNodes>
            0 -1 102 1.3935120776295662e-02</internalNodes>
          <leafValues>
            -2.9074013233184814e-01 2.3400078713893890e-01</leafValues></_>
        <_>
          <internalNodes>
            0 -1 75 -7.9667165875434875e-02</internalNodes>
          <leafValues>
            -8.9095830917358398e-01 5.3315754979848862e-02</leafValues></_>
        <_>
          <internalNodes>
            0 -1 85 2.6066880673170090e-04</internalNodes>
          <leafValues>
            1.2968185544013977e-01 -3.5364276170730591e-01</leafValues></_>
        <_>
          <internalNodes>
            0 -1 138 -2.4587824009358883e-03</internalNodes>
          <leafValues>
            4.3201237916946411e-01 -1.3229861855506897e-01</leafValues></_>
        <_>
          <internalNodes>
            0 -1 132 7.3965974152088165e-03</internalNodes>
          <leafValues>
            -9.1328009963035583e-02 5.4760855436325073e-01</leafValues></_>
        <_>
          <internalNodes>
            0 -1 50 -1.1740702204406261e-02</internalNodes>
          <leafValues>
            2.6695242524147034e-01 -2.0229050517082214e-01</leafValues></_>
        <_>
          <internalNodes>
            0 -1 20 5.2084799855947495e-02</internalNodes>
          <leafValues>
            -7.4397407472133636e-02 7.7015900611877441e-01</leafValues></_>
        <_>
          <internalNodes>
            0 -1 130 5.3532165475189686e-04</internalNodes>
          <leafValues>
            -2.4189138412475586e-01 2.1601833403110504e-01</leafValues></_></weakClassifiers></_>
    <!-- stage 7 -->
    <_>
      <maxWeakCount>21</maxWeakCount>
      <stageThreshold>-1.4710571765899658e+00</stageThreshold>
      <weakClassifiers>
        <_>
          <internalNodes>
            0 -1 84 -1.7260584980249405e-02</internalNodes>
          <leafValues>
            -3.0841121077537537e-01 -6.9291341304779053e-01</leafValues></_>
        <_>
          <internalNodes>
            0 -1 16 2.1232693688943982e-04</internalNodes>
          <leafValues>
            -3.9013564586639404e-01 5.6857287883758545e-02</leafValues></_>
        <_>
          <internalNodes>
            0 -1 92 -6.2680514529347420e-03</internalNodes>
          <leafValues>
            2.7102595567703247e-01 -1.8286319077014923e-01</leafValues></_>
        <_>
          <internalNodes>
            0 -1 116 -8.8243791833519936e-03</internalNodes>
          <leafValues>
            1.6209663450717926e-01 -3.1459683179855347e-01</leafValues></_>
        <_>
          <internalNodes>
            0 -1 21 -8.6178004741668701e-02</internalNodes>
          <leafValues>
            -9.3835079669952393e-01 8.1450827419757843e-02</leafValues></_>
        <_>
          <internalNodes>
            0 -1 154 -8.6446653585880995e-04</internalNodes>
          <leafValues>
            2.0739120244979858e-01 -2.2244054079055786e-01</leafValues></_>
        <_>
          <internalNodes>
            0 -1 100 3.5746287554502487e-02</internalNodes>
          <leafValues>
            5.1040261983871460e-02 -1.</leafValues></_>
        <_>
          <internalNodes>
            0 -1 163 4.7226771712303162e-02</internalNodes>
          <leafValues>
            -1.6075779497623444e-01 2.9213637113571167e-01</leafValues></_>
        <_>
          <internalNodes>
            0 -1 173 5.1245754584670067e-03</internalNodes>
          <leafValues>
            7.3080904781818390e-02 -6.4423632621765137e-01</leafValues></_>
        <_>
          <internalNodes>
            0 -1 105 -1.9699992844834924e-04</internalNodes>
          <leafValues>
            2.7107131481170654e-01 -1.7257611453533173e-01</leafValues></_>
        <_>
          <internalNodes>
            0 -1 12 -9.7266659140586853e-03</internalNodes>
          <leafValues>
            -8.8754701614379883e-01 5.2091430872678757e-02</leafValues></_>
        <_>
          <internalNodes>
            0 -1 42 2.9060603119432926e-03</internalNodes>
          <leafValues>
            -1.6409721970558167e-01 2.8250616788864136e-01</leafValues></_>
        <_>
          <internalNodes>
            0 -1 41 -1.3576062396168709e-02</internalNodes>
          <leafValues>
            6.1458194255828857e-01 -8.9741729199886322e-02</leafValues></_>
        <_>
          <internalNodes>
            0 -1 55 -1.0957890748977661e-01</internalNodes>
          <leafValues>
            -9.3926995992660522e-01 5.8259304612874985e-02</leafValues></_>
        <_>
          <internalNodes>
            0 -1 161 -1.0951580479741096e-03</internalNodes>
          <leafValues>
            -4.9741947650909424e-01 7.7536493539810181e-02</leafValues></_>
        <_>
          <internalNodes>
            0 -1 187 1.4878288842737675e-02</internalNodes>
          <leafValues>
            -1.7347474396228790e-01 2.8239259123802185e-01</leafValues></_>
        <_>
          <internalNodes>
            0 -1 60 2.2134695202112198e-02</internalNodes>
          <leafValues>
            7.1418069303035736e-02 -7.3861491680145264e-01</leafValues></_>
        <_>
          <internalNodes>
            0 -1 51 -1.5057791024446487e-02</internalNodes>
          <leafValues>
            2.4324291944503784e-01 -2.1064402163028717e-01</leafValues></_>
        <_>
          <internalNodes>
            0 -1 53 -5.5179465562105179e-03</internalNodes>
          <leafValues>
            -5.4208064079284668e-01 1.0219264775514603e-01</leafValues></_>
        <_>
          <internalNodes>
            0 -1 104 2.7853094507008791e-03</internalNodes>
          <leafValues>
            -1.6751469671726227e-01 3.8669469952583313e-01</leafValues></_>
        <_>
          <internalNodes>
            0 -1 67 4.5582242310047150e-02</internalNodes>
          <leafValues>
            8.5916593670845032e-02 -6.1462426185607910e-01</leafValues></_></weakClassifiers></_>
    <!-- stage 8 -->
    <_>
      <maxWeakCount>21</maxWeakCount>
      <stageThreshold>-1.3495229482650757e+00</stageThreshold>
      <weakClassifiers>
        <_>
          <internalNodes>
            0 -1 14 -8.4394747391343117e-03</internalNodes>
          <leafValues>
            -4.0779221057891846e-01 -7.2544378042221069e-01</leafValues></_>
        <_>
          <internalNodes>
            0 -1 192 1.4992463402450085e-03</internalNodes>
          <leafValues>
            -3.6924949288368225e-01 7.3816165328025818e-02</leafValues></_>
        <_>
          <internalNodes>
            0 -1 159 1.0608088923618197e-03</internalNodes>
          <leafValues>
            5.7189032435417175e-02 -7.8694534301757813e-01</leafValues></_>
        <_>
          <internalNodes>
            0 -1 64 -2.9812969267368317e-02</internalNodes>
          <leafValues>
            3.0363902449607849e-01 -1.5989938378334045e-01</leafValues></_>
        <_>
          <internalNodes>
            0 -1 196 3.1278893584385514e-04</internalNodes>
          <leafValues>
            9.6111252903938293e-02 -4.3630468845367432e-01</leafValues></_>
        <_>
          <internalNodes>
            0 -1 19 1.6964257156359963e-05</internalNodes>
          <leafValues>
            -2.7520212531089783e-01 1.9080030918121338e-01</leafValues></_>
        <_>
          <internalNodes>
            0 -1 28 -5.7723838835954666e-03</internalNodes>
          <leafValues>
            -8.0326545238494873e-01 5.2714828401803970e-02</leafValues></_>
        <_>
          <internalNodes>
            0 -1 121 2.9146635532379150e-01</internalNodes>
          <leafValues>
            3.3977195620536804e-02 -1.</leafValues></_>
        <_>
          <internalNodes>
            0 -1 164 -1.3490784913301468e-03</internalNodes>
          <leafValues>
            2.7498736977577209e-01 -1.5966843068599701e-01</leafValues></_>
        <_>
          <internalNodes>
            0 -1 74 -3.3507061004638672e-01</internalNodes>
          <leafValues>
            6.8571180105209351e-01 -5.6238211691379547e-02</leafValues></_>
        <_>
          <internalNodes>
            0 -1 35 -4.9003660678863525e-02</internalNodes>
          <leafValues>
            2.3208034038543701e-01 -2.1132881939411163e-01</leafValues></_>
        <_>
          <internalNodes>
            0 -1 140 2.4974970147013664e-03</internalNodes>
          <leafValues>
            -1.1535274237394333e-01 4.1919562220573425e-01</leafValues></_>
        <_>
          <internalNodes>
            0 -1 191 -7.6052048825658858e-05</internalNodes>
          <leafValues>
            -3.0661657452583313e-01 1.5585328638553619e-01</leafValues></_>
        <_>
          <internalNodes>
            0 -1 152 7.7893016859889030e-03</internalNodes>
          <leafValues>
            -1.6698707640171051e-01 3.0029964447021484e-01</leafValues></_>
        <_>
          <internalNodes>
            0 -1 26 5.8232750743627548e-03</internalNodes>
          <leafValues>
            -1.7877201735973358e-01 2.5818234682083130e-01</leafValues></_>
        <_>
          <internalNodes>
            0 -1 91 -1.6561524244025350e-03</internalNodes>
          <leafValues>
            2.2966013848781586e-01 -2.0616497099399567e-01</leafValues></_>
        <_>
          <internalNodes>
            0 -1 123 8.7205991148948669e-02</internalNodes>
          <leafValues>
            5.0458688288927078e-02 -8.8850939273834229e-01</leafValues></_>
        <_>
          <internalNodes>
            0 -1 61 -5.3810225799679756e-03</internalNodes>
          <leafValues>
            -9.4224464893341064e-01 3.4355197101831436e-02</leafValues></_>
        <_>
          <internalNodes>
            0 -1 175 -3.9158783853054047e-02</internalNodes>
          <leafValues>
            6.0478246212005615e-01 -8.7978661060333252e-02</leafValues></_>
        <_>
          <internalNodes>
            0 -1 166 -2.4292175658047199e-03</internalNodes>
          <leafValues>
            -5.1466071605682373e-01 1.0339573025703430e-01</leafValues></_>
        <_>
          <internalNodes>
            0 -1 114 1.9789543002843857e-02</internalNodes>
          <leafValues>
            -1.3305680453777313e-01 4.1626638174057007e-01</leafValues></_></weakClassifiers></_>
    <!-- stage 9 -->
    <_>
      <maxWeakCount>20</maxWeakCount>
      <stageThreshold>-1.3416433334350586e+00</stageThreshold>
      <weakClassifiers>
        <_>
          <internalNodes>
            0 -1 174 4.2092256247997284e-02</internalNodes>
          <leafValues>
            -6.9340103864669800e-01 -3.5510203242301941e-01</leafValues></_>
        <_>
          <internalNodes>
            0 -1 25 8.5427209734916687e-02</internalNodes>
          <leafValues>
            -2.8486517071723938e-01 1.3698214292526245e-01</leafValues></_>
        <_>
          <internalNodes>
            0 -1 181 1.1161619331687689e-03</internalNodes>
          <leafValues>
            4.6399399638175964e-02 -8.4022009372711182e-01</leafValues></_>
        <_>
          <internalNodes>
            0 -1 96 -2.2661194205284119e-02</internalNodes>
          <leafValues>
            -7.5549709796905518e-01 6.6494740545749664e-02</leafValues></_>
        <_>
          <internalNodes>
            0 -1 141 -5.7177883572876453e-03</internalNodes>
          <leafValues>
            4.2126217484474182e-01 -9.6180655062198639e-02</leafValues></_>
        <_>
          <internalNodes>
            0 -1 63 1.1309541878290474e-04</internalNodes>
          <leafValues>
            1.4692233502864838e-01 -3.1141558289527893e-01</leafValues></_>
        <_>
          <internalNodes>
            0 -1 2 1.1124014854431152e-02</internalNodes>
          <leafValues>
            -1.5364629030227661e-01 3.2588544487953186e-01</leafValues></_>
        <_>
          <internalNodes>
            0 -1 148 7.2650122456252575e-04</internalNodes>
          <leafValues>
            8.7294280529022217e-02 -4.4052627682685852e-01</leafValues></_>
        <_>
          <internalNodes>
            0 -1 144 2.3446236737072468e-03</internalNodes>
          <leafValues>
            -1.2454257905483246e-01 3.6553192138671875e-01</leafValues></_>
        <_>
          <internalNodes>
            0 -1 49 9.8623964004218578e-04</internalNodes>
          <leafValues>
            -1.4700300991535187e-01 3.3001103997230530e-01</leafValues></_>
        <_>
          <internalNodes>
            0 -1 10 -1.2580584734678268e-03</internalNodes>
          <leafValues>
            -7.1779102087020874e-01 6.8616673350334167e-02</leafValues></_>
        <_>
          <internalNodes>
            0 -1 101 7.0776030421257019e-02</internalNodes>
          <leafValues>
            6.1638668179512024e-02 -5.0774759054183960e-01</leafValues></_>
        <_>
          <internalNodes>
            0 -1 131 3.3271485008299351e-03</internalNodes>
          <leafValues>
            -9.7366400063037872e-02 4.2567273974418640e-01</leafValues></_>
        <_>
          <internalNodes>
            0 -1 128 -1.8609533086419106e-02</internalNodes>
          <leafValues>
            4.9033549427986145e-01 -9.1118581593036652e-02</leafValues></_>
        <_>
          <internalNodes>
            0 -1 52 -1.8404737347736955e-03</internalNodes>
          <leafValues>
            -5.1589667797088623e-01 9.7778230905532837e-02</leafValues></_>
        <_>
          <internalNodes>
            0 -1 171 3.9534978568553925e-03</internalNodes>
          <leafValues>
            -1.6946361958980560e-01 2.6009240746498108e-01</leafValues></_>
        <_>
          <internalNodes>
            0 -1 180 2.6596477255225182e-03</internalNodes>
          <leafValues>
            8.2637846469879150e-02 -5.6191474199295044e-01</leafValues></_>
        <_>
          <internalNodes>
            0 -1 83 -6.4273527823388577e-03</internalNodes>
          <leafValues>
            3.2323995232582092e-01 -1.4530742168426514e-01</leafValues></_>
        <_>
          <internalNodes>
            0 -1 59 -4.5149724930524826e-02</internalNodes>
          <leafValues>
            8.4397846460342407e-01 -5.2140410989522934e-02</leafValues></_>
        <_>
          <internalNodes>
            0 -1 197 6.8191252648830414e-03</internalNodes>
          <leafValues>
            5.5609676986932755e-02 -1.</leafValues></_></weakClassifiers></_>
    <!-- stage 10 -->
    <_>
      <maxWeakCount>21</maxWeakCount>
      <stageThreshold>-1.2606449127197266e+00</stageThreshold>
      <weakClassifiers>
        <_>
          <internalNodes>
            0 -1 43 -1.0569383203983307e-01</internalNodes>
          <leafValues>
            -1.9008263945579529e-01 -6.7357981204986572e-01</leafValues></_>
        <_>
          <internalNodes>
            0 -1 127 6.9196531549096107e-03</internalNodes>
          <leafValues>
            -6.5502472221851349e-02 -8.3876132965087891e-01</leafValues></_>
        <_>
          <internalNodes>
            0 -1 142 -3.6052864743396640e-05</internalNodes>
          <leafValues>
            1.9575338065624237e-01 -2.2417604923248291e-01</leafValues></_>
        <_>
          <internalNodes>
            0 -1 39 -1.9025967922061682e-03</internalNodes>
          <leafValues>
            3.0134347081184387e-01 -1.4138269424438477e-01</leafValues></_>
        <_>
          <internalNodes>
            0 -1 22 -4.7647342085838318e-02</internalNodes>
          <leafValues>
            -7.5464737415313721e-01 5.0641980022192001e-02</leafValues></_>
        <_>
          <internalNodes>
            0 -1 136 1.6990173608064651e-02</internalNodes>
          <leafValues>
            -1.5675526857376099e-01 3.0046367645263672e-01</leafValues></_>
        <_>
          <internalNodes>
            0 -1 87 7.4028059840202332e-02</internalNodes>
          <leafValues>
            -2.5077566504478455e-01 1.4894478023052216e-01</leafValues></_>
        <_>
          <internalNodes>
            0 -1 111 6.1943251639604568e-03</internalNodes>
          <leafValues>
            1.3990515470504761e-01 -3.2691508531570435e-01</leafValues></_>
        <_>
          <internalNodes>
            0 -1 122 4.2520095594227314e-03</internalNodes>
          <leafValues>
            -1.0945868492126465e-01 4.4592967629432678e-01</leafValues></_>
        <_>
          <internalNodes>
            0 -1 124 -3.2528530806303024e-02</internalNodes>
          <leafValues>
            -4.5170447230339050e-01 9.7317531704902649e-02</leafValues></_>
        <_>
          <internalNodes>
            0 -1 78 -1.8859501928091049e-02</internalNodes>
          <leafValues>
            2.0650196075439453e-01 -2.1616463363170624e-01</leafValues></_>
        <_>
          <internalNodes>
            0 -1 89 1.8682944355532527e-03</internalNodes>
          <leafValues>
            1.1788021773099899e-01 -3.5603517293930054e-01</leafValues></_>
        <_>
          <internalNodes>
            0 -1 110 2.8713038191199303e-03</internalNodes>
          <leafValues>
            -1.2765045464038849e-01 3.3847972750663757e-01</leafValues></_>
        <_>
          <internalNodes>
            0 -1 167 -1.3999093789607286e-04</internalNodes>
          <leafValues>
            -2.8040960431098938e-01 1.7179869115352631e-01</leafValues></_>
        <_>
          <internalNodes>
            0 -1 27 -3.6385795101523399e-03</internalNodes>
          <leafValues>
            -9.3707019090652466e-01 4.4660422950983047e-02</leafValues></_>
        <_>
          <internalNodes>
            0 -1 193 -2.7794018387794495e-02</internalNodes>
          <leafValues>
            -8.0977457761764526e-01 3.8734395056962967e-02</leafValues></_>
        <_>
          <internalNodes>
            0 -1 11 -1.0493251495063305e-02</internalNodes>
          <leafValues>
            3.5420611500740051e-01 -1.3069446384906769e-01</leafValues></_>
        <_>
          <internalNodes>
            0 -1 172 -7.7467593364417553e-03</internalNodes>
          <leafValues>
            3.6515849828720093e-01 -1.1518836766481400e-01</leafValues></_>
        <_>
          <internalNodes>
            0 -1 24 -6.7488178610801697e-02</internalNodes>
          <leafValues>
            -8.7516009807586670e-01 5.2719671279191971e-02</leafValues></_>
        <_>
          <internalNodes>
            0 -1 120 6.8621046375483274e-04</internalNodes>
          <leafValues>
            -1.8725265562534332e-01 2.4330511689186096e-01</leafValues></_>
        <_>
          <internalNodes>
            0 -1 54 6.7894081585109234e-03</internalNodes>
          <leafValues>
            7.1448579430580139e-02 -6.1272376775741577e-01</leafValues></_></weakClassifiers></_>
    <!-- stage 11 -->
    <_>
      <maxWeakCount>24</maxWeakCount>
      <stageThreshold>-1.3442054986953735e+00</stageThreshold>
      <weakClassifiers>
        <_>
          <internalNodes>
            0 -1 90 3.7995316088199615e-02</internalNodes>
          <leafValues>
            -7.0530879497528076e-01 -3.8762214779853821e-01</leafValues></_>
        <_>
          <internalNodes>
            0 -1 66 -4.9088558554649353e-01</internalNodes>
          <leafValues>
            1.6733452677726746e-01 -2.4779020249843597e-01</leafValues></_>
        <_>
          <internalNodes>
            0 -1 186 8.5602775216102600e-03</internalNodes>
          <leafValues>
            -1.0974152386188507e-01 3.8601759076118469e-01</leafValues></_>
        <_>
          <internalNodes>
            0 -1 1 5.5693695321679115e-04</internalNodes>
          <leafValues>
            1.0779748111963272e-01 -3.6826848983764648e-01</leafValues></_>
        <_>
          <internalNodes>
            0 -1 70 -4.4540711678564548e-04</internalNodes>
          <leafValues>
            3.0800977349281311e-01 -1.1722082644701004e-01</leafValues></_>
        <_>
          <internalNodes>
            0 -1 1 -3.3442949643358588e-04</internalNodes>
          <leafValues>
            -3.3221331238746643e-01 1.3167598843574524e-01</leafValues></_>
        <_>
          <internalNodes>
            0 -1 168 5.5680831428617239e-04</internalNodes>
          <leafValues>
            -2.8371810913085938e-01 1.3684208691120148e-01</leafValues></_>
        <_>
          <internalNodes>
            0 -1 178 2.8258757665753365e-03</internalNodes>
          <leafValues>
            -1.5841408073902130e-01 2.5368589162826538e-01</leafValues></_>
        <_>
          <internalNodes>
            0 -1 71 -3.8103794213384390e-04</internalNodes>
          <leafValues>
            2.6811531186103821e-01 -1.4714308083057404e-01</leafValues></_>
        <_>
          <internalNodes>
            0 -1 23 5.8805616572499275e-04</internalNodes>
          <leafValues>
            8.8303789496421814e-02 -4.4544687867164612e-01</leafValues></_>
        <_>
          <internalNodes>
            0 -1 147 1.7515655606985092e-02</internalNodes>
          <leafValues>
            -9.7584262490272522e-02 4.6648675203323364e-01</leafValues></_>
        <_>
          <internalNodes>
            0 -1 107 4.8361234366893768e-02</internalNodes>
          <leafValues>
            6.1264343559741974e-02 -7.1392309665679932e-01</leafValues></_>
        <_>
          <internalNodes>
            0 -1 190 -1.1910196190001443e-04</internalNodes>
          <leafValues>
            -3.1696519255638123e-01 1.1664854735136032e-01</leafValues></_>
        <_>
          <internalNodes>
            0 -1 126 3.4811571240425110e-03</internalNodes>
          <leafValues>
            -6.9673314690589905e-02 6.1503046751022339e-01</leafValues></_>
        <_>
          <internalNodes>
            0 -1 37 -1.1704183998517692e-04</internalNodes>
          <leafValues>
            1.6157515347003937e-01 -2.7040013670921326e-01</leafValues></_>
        <_>
          <internalNodes>
            0 -1 129 6.0873143374919891e-03</internalNodes>
          <leafValues>
            -1.7490336298942566e-01 2.7482804656028748e-01</leafValues></_>
        <_>
          <internalNodes>
            0 -1 98 8.1777125597000122e-03</internalNodes>
          <leafValues>
            1.3659231364727020e-01 -3.2353940606117249e-01</leafValues></_>
        <_>
          <internalNodes>
            0 -1 134 1.9373463001102209e-03</internalNodes>
          <leafValues>
            -1.5744660794734955e-01 3.3433437347412109e-01</leafValues></_>
        <_>
          <internalNodes>
            0 -1 145 1.3894154690206051e-03</internalNodes>
          <leafValues>
            1.0225199908018112e-01 -4.5150971412658691e-01</leafValues></_>
        <_>
          <internalNodes>
            0 -1 99 -2.4163243360817432e-03</internalNodes>
          <leafValues>
            2.4522739648818970e-01 -2.0047730207443237e-01</leafValues></_>
        <_>
          <internalNodes>
            0 -1 169 -2.8220149688422680e-03</internalNodes>
          <leafValues>
            3.9854967594146729e-01 -1.1491537839174271e-01</leafValues></_>
        <_>
          <internalNodes>
            0 -1 115 -2.2809822112321854e-02</internalNodes>
          <leafValues>
            3.6951798200607300e-01 -1.1812295019626617e-01</leafValues></_>
        <_>
          <internalNodes>
            0 -1 146 5.7639363221824169e-03</internalNodes>
          <leafValues>
            -1.4793698489665985e-01 3.6645153164863586e-01</leafValues></_>
        <_>
          <internalNodes>
            0 -1 155 1.6092188889160752e-03</internalNodes>
          <leafValues>
            -1.6171517968177795e-01 2.6981469988822937e-01</leafValues></_></weakClassifiers></_></stages>
  <features>
    <_>
      <rects>
        <_>
          0 0 2 2 -1.</_>
        <_>
          1 0 1 2 2.</_></rects>
      <tilted>0</tilted></_>
    <_>
      <rects>
        <_>
          0 0 3 2 -1.</_>
        <_>
          1 0 1 2 3.</_></rects>
      <tilted>0</tilted></_>
    <_>
      <rects>
        <_>
          0 0 12 3 -1.</_>
        <_>
          4 0 4 3 3.</_></rects>
      <tilted>0</tilted></_>
    <_>
      <rects>
        <_>
          0 0 10 15 -1.</_>
        <_>
          0 5 10 5 3.</_></rects>
      <tilted>0</tilted></_>
    <_>
      <rects>
        <_>
          0 1 2 2 -1.</_>
        <_>
          1 1 1 2 2.</_></rects>
      <tilted>0</tilted></_>
    <_>
      <rects>
        <_>
          0 1 24 14 -1.</_>
        <_>
          8 1 8 14 3.</_></rects>
      <tilted>0</tilted></_>
    <_>
      <rects>
        <_>
          0 2 6 18 -1.</_>
        <_>
          3 2 3 18 2.</_></rects>
      <tilted>0</tilted></_>
    <_>
      <rects>
        <_>
          0 2 8 4 -1.</_>
        <_>
          4 2 4 4 2.</_></rects>
      <tilted>0</tilted></_>
    <_>
      <rects>
        <_>
          0 2 24 22 -1.</_>
        <_>
          8 2 8 22 3.</_></rects>
      <tilted>0</tilted></_>
    <_>
      <rects>
        <_>
          0 4 4 12 -1.</_>
        <_>
          0 4 2 6 2.</_>
        <_>
          2 10 2 6 2.</_></rects>
      <tilted>0</tilted></_>
    <_>
      <rects>
        <_>
          0 5 2 1 -1.</_>
        <_>
          1 5 1 1 2.</_></rects>
      <tilted>0</tilted></_>
    <_>
      <rects>
        <_>
          0 6 6 11 -1.</_>
        <_>
          2 6 2 11 3.</_></rects>
      <tilted>0</tilted></_>
    <_>
      <rects>
        <_>
          0 6 8 3 -1.</_>
        <_>
          0 7 8 1 3.</_></rects>
      <tilted>0</tilted></_>
    <_>
      <rects>
        <_>
          0 11 4 2 -1.</_>
        <_>
          0 11 2 1 2.</_>
        <_>
          2 12 2 1 2.</_></rects>
      <tilted>0</tilted></_>
    <_>
      <rects>
        <_>
          0 11 6 3 -1.</_>
        <_>
          3 11 3 3 2.</_></rects>
      <tilted>0</tilted></_>
    <_>
      <rects>
        <_>
          0 12 10 12 -1.</_>
        <_>
          0 16 10 4 3.</_></rects>
      <tilted>0</tilted></_>
    <_>
      <rects>
        <_>
          0 14 1 8 -1.</_>
        <_>
          0 18 1 4 2.</_></rects>
      <tilted>0</tilted></_>
    <_>
      <rects>
        <_>
          0 14 6 4 -1.</_>
        <_>
          0 14 3 2 2.</_>
        <_>
          3 16 3 2 2.</_></rects>
      <tilted>0</tilted></_>
    <_>
      <rects>
        <_>
          0 14 24 10 -1.</_>
        <_>
          0 19 24 5 2.</_></rects>
      <tilted>0</tilted></_>
    <_>
      <rects>
        <_>
          0 15 1 6 -1.</_>
        <_>
          0 18 1 3 2.</_></rects>
      <tilted>0</tilted></_>
    <_>
      <rects>
        <_>
          0 15 10 6 -1.</_>
        <_>
          5 15 5 6 2.</_></rects>
      <tilted>0</tilted></_>
    <_>
      <rects>
        <_>
          0 15 22 8 -1.</_>
        <_>
          0 15 11 4 2.</_>
        <_>
          11 19 11 4 2.</_></rects>
      <tilted>0</tilted></_>
    <_>
      <rects>
        <_>
          0 17 16 6 -1.</_>
        <_>
          0 19 16 2 3.</_></rects>
      <tilted>0</tilted></_>
    <_>
      <rects>
        <_>
          0 18 1 2 -1.</_>
        <_>
          0 19 1 1 2.</_></rects>
      <tilted>0</tilted></_>
    <_>
      <rects>
        <_>
          0 18 17 6 -1.</_>
        <_>
          0 20 17 2 3.</_></rects>
      <tilted>0</tilted></_>
    <_>
      <rects>
        <_>
          0 18 22 6 -1.</_>
        <_>
          0 21 22 3 2.</_></rects>
      <tilted>0</tilted></_>
    <_>
      <rects>
        <_>
          0 19 12 4 -1.</_>
        <_>
          0 19 6 2 2.</_>
        <_>
          6 21 6 2 2.</_></rects>
      <tilted>0</tilted></_>
    <_>
      <rects>
        <_>
          0 20 2 3 -1.</_>
        <_>
          1 20 1 3 2.</_></rects>
      <tilted>0</tilted></_>
    <_>
      <rects>
        <_>
          0 20 3 4 -1.</_>
        <_>
          0 22 3 2 2.</_></rects>
      <tilted>0</tilted></_>
    <_>
      <rects>
        <_>
          0 22 21 2 -1.</_>
        <_>
          0 23 21 1 2.</_></rects>
      <tilted>0</tilted></_>
    <_>
      <rects>
        <_>
          0 23 15 1 -1.</_>
        <_>
          5 23 5 1 3.</_></rects>
      <tilted>0</tilted></_>
    <_>
      <rects>
        <_>
          0 23 24 1 -1.</_>
        <_>
          8 23 8 1 3.</_></rects>
      <tilted>0</tilted></_>
    <_>
      <rects>
        <_>
          1 0 3 1 -1.</_>
        <_>
          2 0 1 1 3.</_></rects>
      <tilted>0</tilted></_>
    <_>
      <rects>
        <_>
          1 0 12 3 -1.</_>
        <_>
          1 1 12 1 3.</_></rects>
      <tilted>0</tilted></_>
    <_>
      <rects>
        <_>
          1 2 6 7 -1.</_>
        <_>
          4 2 3 7 2.</_></rects>
      <tilted>0</tilted></_>
    <_>
      <rects>
        <_>
          1 4 22 12 -1.</_>
        <_>
          1 8 22 4 3.</_></rects>
      <tilted>0</tilted></_>
    <_>
      <rects>
        <_>
          1 5 8 12 -1.</_>
        <_>
          1 5 4 6 2.</_>
        <_>
          5 11 4 6 2.</_></rects>
      <tilted>0</tilted></_>
    <_>
      <rects>
        <_>
          1 8 6 2 -1.</_>
        <_>
          1 9 6 1 2.</_></rects>
      <tilted>0</tilted></_>
    <_>
      <rects>
        <_>
          1 8 18 9 -1.</_>
        <_>
          7 8 6 9 3.</_></rects>
      <tilted>0</tilted></_>
    <_>
      <rects>
        <_>
          1 10 4 4 -1.</_>
        <_>
          1 10 2 2 2.</_>
        <_>
          3 12 2 2 2.</_></rects>
      <tilted>0</tilted></_>
    <_>
      <rects>
        <_>
          1 10 18 7 -1.</_>
        <_>
          7 10 6 7 3.</_></rects>
      <tilted>0</tilted></_>
    <_>
      <rects>
        <_>
          1 15 6 3 -1.</_>
        <_>
          3 15 2 3 3.</_></rects>
      <tilted>0</tilted></_>
    <_>
      <rects>
        <_>
          1 15 6 4 -1.</_>
        <_>
          3 15 2 4 3.</_></rects>
      <tilted>0</tilted></_>
    <_>
      <rects>
        <_>
          1 18 21 4 -1.</_>
        <_>
          8 18 7 4 3.</_></rects>
      <tilted>0</tilted></_>
    <_>
      <rects>
        <_>
          2 0 3 1 -1.</_>
        <_>
          3 0 1 1 3.</_></rects>
      <tilted>0</tilted></_>
    <_>
      <rects>
        <_>
          2 0 3 3 -1.</_>
        <_>
          3 0 1 3 3.</_></rects>
      <tilted>0</tilted></_>
    <_>
      <rects>
        <_>
          2 1 3 1 -1.</_>
        <_>
          3 1 1 1 3.</_></rects>
      <tilted>0</tilted></_>
    <_>
      <rects>
        <_>
          2 1 9 22 -1.</_>
        <_>
          2 12 9 11 2.</_></rects>
      <tilted>0</tilted></_>
    <_>
      <rects>
        <_>
          2 3 20 18 -1.</_>
        <_>
          2 12 20 9 2.</_></rects>
      <tilted>0</tilted></_>
    <_>
      <rects>
        <_>
          2 13 2 4 -1.</_>
        <_>
          2 13 1 2 2.</_>
        <_>
          3 15 1 2 2.</_></rects>
      <tilted>0</tilted></_>
    <_>
      <rects>
        <_>
          2 14 8 9 -1.</_>
        <_>
          2 17 8 3 3.</_></rects>
      <tilted>0</tilted></_>
    <_>
      <rects>
        <_>
          2 17 12 7 -1.</_>
        <_>
          6 17 4 7 3.</_></rects>
      <tilted>0</tilted></_>
    <_>
      <rects>
        <_>
          2 20 3 4 -1.</_>
        <_>
          2 22 3 2 2.</_></rects>
      <tilted>0</tilted></_>
    <_>
      <rects>
        <_>
          2 23 8 1 -1.</_>
        <_>
          6 23 4 1 2.</_></rects>
      <tilted>0</tilted></_>
    <_>
      <rects>
        <_>
          3 0 9 1 -1.</_>
        <_>
          6 0 3 1 3.</_></rects>
      <tilted>0</tilted></_>
    <_>
      <rects>
        <_>
          3 0 6 19 -1.</_>
        <_>
          6 0 3 19 2.</_></rects>
      <tilted>0</tilted></_>
    <_>
      <rects>
        <_>
          3 0 14 2 -1.</_>
        <_>
          3 1 14 1 2.</_></rects>
      <tilted>0</tilted></_>
    <_>
      <rects>
        <_>
          3 0 18 24 -1.</_>
        <_>
          3 8 18 8 3.</_></rects>
      <tilted>0</tilted></_>
    <_>
      <rects>
        <_>
          3 11 6 1 -1.</_>
        <_>
          6 11 3 1 2.</_></rects>
      <tilted>0</tilted></_>
    <_>
      <rects>
        <_>
          3 11 3 12 -1.</_>
        <_>
          3 17 3 6 2.</_></rects>
      <tilted>0</tilted></_>
    <_>
      <rects>
        <_>
          3 16 20 4 -1.</_>
        <_>
          3 16 10 2 2.</_>
        <_>
          13 18 10 2 2.</_></rects>
      <tilted>0</tilted></_>
    <_>
      <rects>
        <_>
          3 17 6 2 -1.</_>
        <_>
          3 18 6 1 2.</_></rects>
      <tilted>0</tilted></_>
    <_>
      <rects>
        <_>
          3 17 21 3 -1.</_>
        <_>
          3 18 21 1 3.</_></rects>
      <tilted>0</tilted></_>
    <_>
      <rects>
        <_>
          4 0 2 2 -1.</_>
        <_>
          5 0 1 2 2.</_></rects>
      <tilted>0</tilted></_>
    <_>
      <rects>
        <_>
          4 0 15 5 -1.</_>
        <_>
          9 0 5 5 3.</_></rects>
      <tilted>0</tilted></_>
    <_>
      <rects>
        <_>
          4 0 15 21 -1.</_>
        <_>
          4 7 15 7 3.</_></rects>
      <tilted>0</tilted></_>
    <_>
      <rects>
        <_>
          4 0 19 24 -1.</_>
        <_>
          4 8 19 8 3.</_></rects>
      <tilted>0</tilted></_>
    <_>
      <rects>
        <_>
          4 5 12 11 -1.</_>
        <_>
          10 5 6 11 2.</_></rects>
      <tilted>0</tilted></_>
    <_>
      <rects>
        <_>
          4 6 20 2 -1.</_>
        <_>
          4 7 20 1 2.</_></rects>
      <tilted>0</tilted></_>
    <_>
      <rects>
        <_>
          4 12 1 2 -1.</_>
        <_>
          4 13 1 1 2.</_></rects>
      <tilted>0</tilted></_>
    <_>
      <rects>
        <_>
          4 17 4 2 -1.</_>
        <_>
          4 17 2 1 2.</_>
        <_>
          6 18 2 1 2.</_></rects>
      <tilted>0</tilted></_>
    <_>
      <rects>
        <_>
          4 18 2 4 -1.</_>
        <_>
          4 18 1 2 2.</_>
        <_>
          5 20 1 2 2.</_></rects>
      <tilted>0</tilted></_>
    <_>
      <rects>
        <_>
          5 0 2 15 -1.</_>
        <_>
          5 5 2 5 3.</_></rects>
      <tilted>0</tilted></_>
    <_>
      <rects>
        <_>
          5 1 9 12 -1.</_>
        <_>
          5 5 9 4 3.</_></rects>
      <tilted>0</tilted></_>
    <_>
      <rects>
        <_>
          5 6 18 14 -1.</_>
        <_>
          5 13 18 7 2.</_></rects>
      <tilted>0</tilted></_>
    <_>
      <rects>
        <_>
          5 8 15 5 -1.</_>
        <_>
          10 8 5 5 3.</_></rects>
      <tilted>0</tilted></_>
    <_>
      <rects>
        <_>
          5 12 12 5 -1.</_>
        <_>
          11 12 6 5 2.</_></rects>
      <tilted>0</tilted></_>
    <_>
      <rects>
        <_>
          5 14 12 10 -1.</_>
        <_>
          5 14 6 5 2.</_>
        <_>
          11 19 6 5 2.</_></rects>
      <tilted>0</tilted></_>
    <_>
      <rects>
        <_>
          5 14 14 9 -1.</_>
        <_>
          5 17 14 3 3.</_></rects>
      <tilted>0</tilted></_>
    <_>
      <rects>
        <_>
          5 15 9 8 -1.</_>
        <_>
          8 15 3 8 3.</_></rects>
      <tilted>0</tilted></_>
    <_>
      <rects>
        <_>
          5 18 8 6 -1.</_>
        <_>
          5 21 8 3 2.</_></rects>
      <tilted>0</tilted></_>
    <_>
      <rects>
        <_>
          5 18 18 6 -1.</_>
        <_>
          5 21 18 3 2.</_></rects>
      <tilted>0</tilted></_>
    <_>
      <rects>
        <_>
          5 20 13 4 -1.</_>
        <_>
          5 22 13 2 2.</_></rects>
      <tilted>0</tilted></_>
    <_>
      <rects>
        <_>
          6 0 9 2 -1.</_>
        <_>
          6 1 9 1 2.</_></rects>
      <tilted>0</tilted></_>
    <_>
      <rects>
        <_>
          6 1 12 2 -1.</_>
        <_>
          10 1 4 2 3.</_></rects>
      <tilted>0</tilted></_>
    <_>
      <rects>
        <_>
          6 2 2 7 -1.</_>
        <_>
          7 2 1 7 2.</_></rects>
      <tilted>0</tilted></_>
    <_>
      <rects>
        <_>
          6 3 15 21 -1.</_>
        <_>
          6 10 15 7 3.</_></rects>
      <tilted>0</tilted></_>
    <_>
      <rects>
        <_>
          6 5 18 17 -1.</_>
        <_>
          15 5 9 17 2.</_></rects>
      <tilted>0</tilted></_>
    <_>
      <rects>
        <_>
          6 17 6 5 -1.</_>
        <_>
          8 17 2 5 3.</_></rects>
      <tilted>0</tilted></_>
    <_>
      <rects>
        <_>
          6 18 1 4 -1.</_>
        <_>
          6 20 1 2 2.</_></rects>
      <tilted>0</tilted></_>
    <_>
      <rects>
        <_>
          6 20 13 4 -1.</_>
        <_>
          6 22 13 2 2.</_></rects>
      <tilted>0</tilted></_>
    <_>
      <rects>
        <_>
          6 21 11 3 -1.</_>
        <_>
          6 22 11 1 3.</_></rects>
      <tilted>0</tilted></_>
    <_>
      <rects>
        <_>
          7 0 6 8 -1.</_>
        <_>
          9 0 2 8 3.</_></rects>
      <tilted>0</tilted></_>
    <_>
      <rects>
        <_>
          7 0 9 2 -1.</_>
        <_>
          7 1 9 1 2.</_></rects>
      <tilted>0</tilted></_>
    <_>
      <rects>
        <_>
          7 1 4 22 -1.</_>
        <_>
          7 12 4 11 2.</_></rects>
      <tilted>0</tilted></_>
    <_>
      <rects>
        <_>
          7 4 3 14 -1.</_>
        <_>
          8 4 1 14 3.</_></rects>
      <tilted>0</tilted></_>
    <_>
      <rects>
        <_>
          7 9 12 3 -1.</_>
        <_>
          13 9 6 3 2.</_></rects>
      <tilted>0</tilted></_>
    <_>
      <rects>
        <_>
          7 11 4 8 -1.</_>
        <_>
          7 11 2 4 2.</_>
        <_>
          9 15 2 4 2.</_></rects>
      <tilted>0</tilted></_>
    <_>
      <rects>
        <_>
          7 13 10 5 -1.</_>
        <_>
          12 13 5 5 2.</_></rects>
      <tilted>0</tilted></_>
    <_>
      <rects>
        <_>
          7 21 17 3 -1.</_>
        <_>
          7 22 17 1 3.</_></rects>
      <tilted>0</tilted></_>
    <_>
      <rects>
        <_>
          7 22 12 2 -1.</_>
        <_>
          13 22 6 2 2.</_></rects>
      <tilted>0</tilted></_>
    <_>
      <rects>
        <_>
          8 9 12 10 -1.</_>
        <_>
          14 9 6 10 2.</_></rects>
      <tilted>0</tilted></_>
    <_>
      <rects>
        <_>
          8 10 12 12 -1.</_>
        <_>
          14 10 6 12 2.</_></rects>
      <tilted>0</tilted></_>
    <_>
      <rects>
        <_>
          8 16 2 1 -1.</_>
        <_>
          9 16 1 1 2.</_></rects>
      <tilted>0</tilted></_>
    <_>
      <rects>
        <_>
          8 16 3 6 -1.</_>
        <_>
          9 16 1 6 3.</_></rects>
      <tilted>0</tilted></_>
    <_>
      <rects>
        <_>
          8 17 2 2 -1.</_>
        <_>
          8 17 1 1 2.</_>
        <_>
          9 18 1 1 2.</_></rects>
      <tilted>0</tilted></_>
    <_>
      <rects>
        <_>
          8 22 7 2 -1.</_>
        <_>
          8 23 7 1 2.</_></rects>
      <tilted>0</tilted></_>
    <_>
      <rects>
        <_>
          8 22 16 2 -1.</_>
        <_>
          16 22 8 2 2.</_></rects>
      <tilted>0</tilted></_>
    <_>
      <rects>
        <_>
          8 22 10 2 -1.</_>
        <_>
          8 23 10 1 2.</_></rects>
      <tilted>0</tilted></_>
    <_>
      <rects>
        <_>
          9 0 1 2 -1.</_>
        <_>
          9 1 1 1 2.</_></rects>
      <tilted>0</tilted></_>
    <_>
      <rects>
        <_>
          9 2 6 2 -1.</_>
        <_>
          11 2 2 2 3.</_></rects>
      <tilted>0</tilted></_>
    <_>
      <rects>
        <_>
          9 9 12 1 -1.</_>
        <_>
          15 9 6 1 2.</_></rects>
      <tilted>0</tilted></_>
    <_>
      <rects>
        <_>
          9 16 8 2 -1.</_>
        <_>
          9 17 8 1 2.</_></rects>
      <tilted>0</tilted></_>
    <_>
      <rects>
        <_>
          9 19 3 2 -1.</_>
        <_>
          10 19 1 2 3.</_></rects>
      <tilted>0</tilted></_>
    <_>
      <rects>
        <_>
          9 19 12 5 -1.</_>
        <_>
          13 19 4 5 3.</_></rects>
      <tilted>0</tilted></_>
    <_>
      <rects>
        <_>
          9 20 12 3 -1.</_>
        <_>
          13 20 4 3 3.</_></rects>
      <tilted>0</tilted></_>
    <_>
      <rects>
        <_>
          10 0 2 16 -1.</_>
        <_>
          10 8 2 8 2.</_></rects>
      <tilted>0</tilted></_>
    <_>
      <rects>
        <_>
          10 0 10 4 -1.</_>
        <_>
          10 0 5 2 2.</_>
        <_>
          15 2 5 2 2.</_></rects>
      <tilted>0</tilted></_>
    <_>
      <rects>
        <_>
          10 4 3 9 -1.</_>
        <_>
          11 4 1 9 3.</_></rects>
      <tilted>0</tilted></_>
    <_>
      <rects>
        <_>
          10 7 3 9 -1.</_>
        <_>
          11 7 1 9 3.</_></rects>
      <tilted>0</tilted></_>
    <_>
      <rects>
        <_>
          10 9 7 3 -1.</_>
        <_>
          10 10 7 1 3.</_></rects>
      <tilted>0</tilted></_>
    <_>
      <rects>
        <_>
          10 10 13 14 -1.</_>
        <_>
          10 17 13 7 2.</_></rects>
      <tilted>0</tilted></_>
    <_>
      <rects>
        <_>
          10 11 3 10 -1.</_>
        <_>
          11 11 1 10 3.</_></rects>
      <tilted>0</tilted></_>
    <_>
      <rects>
        <_>
          10 12 14 12 -1.</_>
        <_>
          10 12 7 6 2.</_>
        <_>
          17 18 7 6 2.</_></rects>
      <tilted>0</tilted></_>
    <_>
      <rects>
        <_>
          10 15 5 9 -1.</_>
        <_>
          10 18 5 3 3.</_></rects>
      <tilted>0</tilted></_>
    <_>
      <rects>
        <_>
          10 18 3 1 -1.</_>
        <_>
          11 18 1 1 3.</_></rects>
      <tilted>0</tilted></_>
    <_>
      <rects>
        <_>
          10 19 2 3 -1.</_>
        <_>
          11 19 1 3 2.</_></rects>
      <tilted>0</tilted></_>
    <_>
      <rects>
        <_>
          10 19 8 3 -1.</_>
        <_>
          10 20 8 1 3.</_></rects>
      <tilted>0</tilted></_>
    <_>
      <rects>
        <_>
          11 1 6 8 -1.</_>
        <_>
          13 1 2 8 3.</_></rects>
      <tilted>0</tilted></_>
    <_>
      <rects>
        <_>
          11 1 12 2 -1.</_>
        <_>
          15 1 4 2 3.</_></rects>
      <tilted>0</tilted></_>
    <_>
      <rects>
        <_>
          11 2 6 14 -1.</_>
        <_>
          13 2 2 14 3.</_></rects>
      <tilted>0</tilted></_>
    <_>
      <rects>
        <_>
          11 3 2 6 -1.</_>
        <_>
          12 3 1 6 2.</_></rects>
      <tilted>0</tilted></_>
    <_>
      <rects>
        <_>
          11 6 2 16 -1.</_>
        <_>
          11 6 1 8 2.</_>
        <_>
          12 14 1 8 2.</_></rects>
      <tilted>0</tilted></_>
    <_>
      <rects>
        <_>
          11 7 9 12 -1.</_>
        <_>
          11 13 9 6 2.</_></rects>
      <tilted>0</tilted></_>
    <_>
      <rects>
        <_>
          11 11 2 9 -1.</_>
        <_>
          12 11 1 9 2.</_></rects>
      <tilted>0</tilted></_>
    <_>
      <rects>
        <_>
          11 14 6 10 -1.</_>
        <_>
          13 14 2 10 3.</_></rects>
      <tilted>0</tilted></_>
    <_>
      <rects>
        <_>
          11 20 6 4 -1.</_>
        <_>
          11 22 6 2 2.</_></rects>
      <tilted>0</tilted></_>
    <_>
      <rects>
        <_>
          11 20 10 4 -1.</_>
        <_>
          11 22 10 2 2.</_></rects>
      <tilted>0</tilted></_>
    <_>
      <rects>
        <_>
          12 5 6 1 -1.</_>
        <_>
          14 5 2 1 3.</_></rects>
      <tilted>0</tilted></_>
    <_>
      <rects>
        <_>
          12 5 12 14 -1.</_>
        <_>
          16 5 4 14 3.</_></rects>
      <tilted>0</tilted></_>
    <_>
      <rects>
        <_>
          12 6 3 3 -1.</_>
        <_>
          13 6 1 3 3.</_></rects>
      <tilted>0</tilted></_>
    <_>
      <rects>
        <_>
          12 6 3 17 -1.</_>
        <_>
          13 6 1 17 3.</_></rects>
      <tilted>0</tilted></_>
    <_>
      <rects>
        <_>
          12 9 2 2 -1.</_>
        <_>
          12 10 2 1 2.</_></rects>
      <tilted>0</tilted></_>
    <_>
      <rects>
        <_>
          12 11 3 11 -1.</_>
        <_>
          13 11 1 11 3.</_></rects>
      <tilted>0</tilted></_>
    <_>
      <rects>
        <_>
          12 14 3 9 -1.</_>
        <_>
          13 14 1 9 3.</_></rects>
      <tilted>0</tilted></_>
    <_>
      <rects>
        <_>
          12 15 3 3 -1.</_>
        <_>
          12 16 3 1 3.</_></rects>
      <tilted>0</tilted></_>
    <_>
      <rects>
        <_>
          12 17 6 5 -1.</_>
        <_>
          14 17 2 5 3.</_></rects>
      <tilted>0</tilted></_>
    <_>
      <rects>
        <_>
          13 13 6 10 -1.</_>
        <_>
          13 13 3 5 2.</_>
        <_>
          16 18 3 5 2.</_></rects>
      <tilted>0</tilted></_>
    <_>
      <rects>
        <_>
          13 23 3 1 -1.</_>
        <_>
          14 23 1 1 3.</_></rects>
      <tilted>0</tilted></_>
    <_>
      <rects>
        <_>
          14 1 8 4 -1.</_>
        <_>
          14 3 8 2 2.</_></rects>
      <tilted>0</tilted></_>
    <_>
      <rects>
        <_>
          14 10 9 1 -1.</_>
        <_>
          17 10 3 1 3.</_></rects>
      <tilted>0</tilted></_>
    <_>
      <rects>
        <_>
          14 12 10 12 -1.</_>
        <_>
          19 12 5 12 2.</_></rects>
      <tilted>0</tilted></_>
    <_>
      <rects>
        <_>
          14 13 8 8 -1.</_>
        <_>
          14 13 4 4 2.</_>
        <_>
          18 17 4 4 2.</_></rects>
      <tilted>0</tilted></_>
    <_>
      <rects>
        <_>
          14 17 9 2 -1.</_>
        <_>
          17 17 3 2 3.</_></rects>
      <tilted>0</tilted></_>
    <_>
      <rects>
        <_>
          14 18 1 6 -1.</_>
        <_>
          14 20 1 2 3.</_></rects>
      <tilted>0</tilted></_>
    <_>
      <rects>
        <_>
          14 19 6 2 -1.</_>
        <_>
          16 19 2 2 3.</_></rects>
      <tilted>0</tilted></_>
    <_>
      <rects>
        <_>
          15 0 8 16 -1.</_>
        <_>
          19 0 4 16 2.</_></rects>
      <tilted>0</tilted></_>
    <_>
      <rects>
        <_>
          15 0 5 14 -1.</_>
        <_>
          15 7 5 7 2.</_></rects>
      <tilted>0</tilted></_>
    <_>
      <rects>
        <_>
          15 1 4 8 -1.</_>
        <_>
          15 1 2 4 2.</_>
        <_>
          17 5 2 4 2.</_></rects>
      <tilted>0</tilted></_>
    <_>
      <rects>
        <_>
          16 0 2 1 -1.</_>
        <_>
          17 0 1 1 2.</_></rects>
      <tilted>0</tilted></_>
    <_>
      <rects>
        <_>
          16 1 4 11 -1.</_>
        <_>
          18 1 2 11 2.</_></rects>
      <tilted>0</tilted></_>
    <_>
      <rects>
        <_>
          16 5 2 4 -1.</_>
        <_>
          17 5 1 4 2.</_></rects>
      <tilted>0</tilted></_>
    <_>
      <rects>
        <_>
          16 9 1 15 -1.</_>
        <_>
          16 14 1 5 3.</_></rects>
      <tilted>0</tilted></_>
    <_>
      <rects>
        <_>
          16 14 8 9 -1.</_>
        <_>
          20 14 4 9 2.</_></rects>
      <tilted>0</tilted></_>
    <_>
      <rects>
        <_>
          16 15 4 4 -1.</_>
        <_>
          16 15 2 2 2.</_>
        <_>
          18 17 2 2 2.</_></rects>
      <tilted>0</tilted></_>
    <_>
      <rects>
        <_>
          16 16 4 6 -1.</_>
        <_>
          16 16 2 3 2.</_>
        <_>
          18 19 2 3 2.</_></rects>
      <tilted>0</tilted></_>
    <_>
      <rects>
        <_>
          16 23 6 1 -1.</_>
        <_>
          19 23 3 1 2.</_></rects>
      <tilted>0</tilted></_>
    <_>
      <rects>
        <_>
          17 1 3 2 -1.</_>
        <_>
          18 1 1 2 3.</_></rects>
      <tilted>0</tilted></_>
    <_>
      <rects>
        <_>
          17 4 4 5 -1.</_>
        <_>
          19 4 2 5 2.</_></rects>
      <tilted>0</tilted></_>
    <_>
      <rects>
        <_>
          17 5 4 4 -1.</_>
        <_>
          17 5 2 2 2.</_>
        <_>
          19 7 2 2 2.</_></rects>
      <tilted>0</tilted></_>
    <_>
      <rects>
        <_>
          17 9 5 15 -1.</_>
        <_>
          17 14 5 5 3.</_></rects>
      <tilted>0</tilted></_>
    <_>
      <rects>
        <_>
          17 14 6 10 -1.</_>
        <_>
          17 14 3 5 2.</_>
        <_>
          20 19 3 5 2.</_></rects>
      <tilted>0</tilted></_>
    <_>
      <rects>
        <_>
          17 18 6 3 -1.</_>
        <_>
          19 18 2 3 3.</_></rects>
      <tilted>0</tilted></_>
    <_>
      <rects>
        <_>
          17 23 6 1 -1.</_>
        <_>
          20 23 3 1 2.</_></rects>
      <tilted>0</tilted></_>
    <_>
      <rects>
        <_>
          18 5 6 10 -1.</_>
        <_>
          21 5 3 10 2.</_></rects>
      <tilted>0</tilted></_>
    <_>
      <rects>
        <_>
          18 6 6 15 -1.</_>
        <_>
          21 6 3 15 2.</_></rects>
      <tilted>0</tilted></_>
    <_>
      <rects>
        <_>
          18 10 6 10 -1.</_>
        <_>
          21 10 3 10 2.</_></rects>
      <tilted>0</tilted></_>
    <_>
      <rects>
        <_>
          18 12 6 11 -1.</_>
        <_>
          21 12 3 11 2.</_></rects>
      <tilted>0</tilted></_>
    <_>
      <rects>
        <_>
          18 14 4 8 -1.</_>
        <_>
          18 14 2 4 2.</_>
        <_>
          20 18 2 4 2.</_></rects>
      <tilted>0</tilted></_>
    <_>
      <rects>
        <_>
          18 16 6 6 -1.</_>
        <_>
          21 16 3 6 2.</_></rects>
      <tilted>0</tilted></_>
    <_>
      <rects>
        <_>
          18 23 6 1 -1.</_>
        <_>
          20 23 2 1 3.</_></rects>
      <tilted>0</tilted></_>
    <_>
      <rects>
        <_>
          19 0 2 2 -1.</_>
        <_>
          19 0 1 1 2.</_>
        <_>
          20 1 1 1 2.</_></rects>
      <tilted>0</tilted></_>
    <_>
      <rects>
        <_>
          19 1 2 2 -1.</_>
        <_>
          19 1 1 1 2.</_>
        <_>
          20 2 1 1 2.</_></rects>
      <tilted>0</tilted></_>
    <_>
      <rects>
        <_>
          20 4 4 16 -1.</_>
        <_>
          20 4 2 8 2.</_>
        <_>
          22 12 2 8 2.</_></rects>
      <tilted>0</tilted></_>
    <_>
      <rects>
        <_>
          20 11 4 7 -1.</_>
        <_>
          22 11 2 7 2.</_></rects>
      <tilted>0</tilted></_>
    <_>
      <rects>
        <_>
          21 2 1 3 -1.</_>
        <_>
          21 3 1 1 3.</_></rects>
      <tilted>0</tilted></_>
    <_>
      <rects>
        <_>
          21 3 1 18 -1.</_>
        <_>
          21 9 1 6 3.</_></rects>
      <tilted>0</tilted></_>
    <_>
      <rects>
        <_>
          21 9 2 14 -1.</_>
        <_>
          21 16 2 7 2.</_></rects>
      <tilted>0</tilted></_>
    <_>
      <rects>
        <_>
          21 20 2 4 -1.</_>
        <_>
          21 22 2 2 2.</_></rects>
      <tilted>0</tilted></_>
    <_>
      <rects>
        <_>
          22 0 2 1 -1.</_>
        <_>
          23 0 1 1 2.</_></rects>
      <tilted>0</tilted></_>
    <_>
      <rects>
        <_>
          22 1 2 1 -1.</_>
        <_>
          23 1 1 1 2.</_></rects>
      <tilted>0</tilted></_>
    <_>
      <rects>
        <_>
          22 1 2 2 -1.</_>
        <_>
          22 1 1 1 2.</_>
        <_>
          23 2 1 1 2.</_></rects>
      <tilted>0</tilted></_>
    <_>
      <rects>
        <_>
          22 7 2 12 -1.</_>
        <_>
          23 7 1 12 2.</_></rects>
      <tilted>0</tilted></_>
    <_>
      <rects>
        <_>
          22 12 2 12 -1.</_>
        <_>
          22 16 2 4 3.</_></rects>
      <tilted>0</tilted></_>
    <_>
      <rects>
        <_>
          22 18 1 6 -1.</_>
        <_>
          22 21 1 3 2.</_></rects>
      <tilted>0</tilted></_>
    <_>
      <rects>
        <_>
          22 22 2 2 -1.</_>
        <_>
          23 22 1 2 2.</_></rects>
      <tilted>0</tilted></_>
    <_>
      <rects>
        <_>
          23 1 1 2 -1.</_>
        <_>
          23 2 1 1 2.</_></rects>
      <tilted>0</tilted></_>
    <_>
      <rects>
        <_>
          23 8 1 6 -1.</_>
        <_>
          23 10 1 2 3.</_></rects>
      <tilted>0</tilted></_></features></cascade>
</opencv_storage>
