<?xml version="1.0"?>
<opencv_storage>
<stage5>
  <maxWeakCount>17</maxWeakCount>
  <stageThreshold>-1.3502490520477295e+00</stageThreshold>
  <weakClassifiers>
    <_>
      <internalNodes>
        0 -1 2711 -3.7143290042877197e-01</internalNodes>
      <leafValues>
        -2.9712459444999695e-01 -7.3827701807022095e-01</leafValues></_>
    <_>
      <internalNodes>
        0 -1 70197 3.3321522176265717e-02</internalNodes>
      <leafValues>
        -3.2964035868644714e-01 2.2511832416057587e-01</leafValues></_>
    <_>
      <internalNodes>
        0 -1 1109 9.6899358322843909e-04</internalNodes>
      <leafValues>
        8.8191136717796326e-02 -7.0233821868896484e-01</leafValues></_>
    <_>
      <internalNodes>
        0 -1 10370 -1.0814695060253143e-01</internalNodes>
      <leafValues>
        -7.3200458288192749e-01 9.3601368367671967e-02</leafValues></_>
    <_>
      <internalNodes>
        0 -1 5 -1.1292153503745794e-03</internalNodes>
      <leafValues>
        -6.1249476671218872e-01 8.6839206516742706e-02</leafValues></_>
    <_>
      <internalNodes>
        0 -1 48731 8.4596835076808929e-03</internalNodes>
      <leafValues>
        6.3760116696357727e-02 -6.5219050645828247e-01</leafValues></_>
    <_>
      <internalNodes>
        0 -1 60539 2.1725371479988098e-02</internalNodes>
      <leafValues>
        -1.4067691564559937e-01 4.4480124115943909e-01</leafValues></_>
    <_>
      <internalNodes>
        0 -1 714 -5.1882959902286530e-02</internalNodes>
      <leafValues>
        3.3774730563163757e-01 -1.6240482032299042e-01</leafValues></_>
    <_>
      <internalNodes>
        0 -1 109160 2.2220024839043617e-03</internalNodes>
      <leafValues>
        -1.3693584501743317e-01 3.7191507220268250e-01</leafValues></_>
    <_>
      <internalNodes>
        0 -1 110625 -4.2386264540255070e-03</internalNodes>
      <leafValues>
        4.2008382081985474e-01 -1.3091394305229187e-01</leafValues></_>
    <_>
      <internalNodes>
        0 -1 2362 3.9260022458620369e-04</internalNodes>
      <leafValues>
        1.7027500271797180e-01 -3.3828571438789368e-01</leafValues></_>
    <_>
      <internalNodes>
        0 -1 81781 -1.4952802658081055e-01</internalNodes>
      <leafValues>
        8.0216741561889648e-01 -7.4533119797706604e-02</leafValues></_>
    <_>
      <internalNodes>
        0 -1 79929 1.4018962159752846e-02</internalNodes>
      <leafValues>
        -9.6045024693012238e-02 5.4724258184432983e-01</leafValues></_>
    <_>
      <internalNodes>
        0 -1 159966 -1.1541564890649170e-04</internalNodes>
      <leafValues>
        -3.3284354209899902e-01 1.8157349526882172e-01</leafValues></_>
    <_>
      <internalNodes>
        0 -1 134575 -2.2883443161845207e-03</internalNodes>
      <leafValues>
        2.2992898523807526e-01 -2.9226845502853394e-01</leafValues></_>
    <_>
      <internalNodes>
        0 -1 138813 5.5952183902263641e-03</internalNodes>
      <leafValues>
        -1.5745684504508972e-01 4.0488454699516296e-01</leafValues></_>
    <_>
      <internalNodes>
        0 -1 150632 -3.3558517694473267e-02</internalNodes>
      <leafValues>
        3.3234480023384094e-01 -2.3189325630664825e-01</leafValues></_></weakClassifiers></stage5>
</opencv_storage>
