<?xml version="1.0"?>
<opencv_storage>
<stage4>
  <maxWeakCount>14</maxWeakCount>
  <stageThreshold>-1.3475075960159302e+00</stageThreshold>
  <weakClassifiers>
    <_>
      <internalNodes>
        0 -1 98624 6.5670749172568321e-03</internalNodes>
      <leafValues>
        -7.3212486505508423e-01 -1.8143460154533386e-01</leafValues></_>
    <_>
      <internalNodes>
        0 -1 38863 -4.0018129348754883e-01</internalNodes>
      <leafValues>
        3.1803372502326965e-01 -3.3555999398231506e-01</leafValues></_>
    <_>
      <internalNodes>
        0 -1 13387 1.7757257446646690e-02</internalNodes>
      <leafValues>
        1.1212160438299179e-01 -5.9291332960128784e-01</leafValues></_>
    <_>
      <internalNodes>
        0 -1 121223 1.4243047684431076e-02</internalNodes>
      <leafValues>
        -2.0187810063362122e-01 3.1332597136497498e-01</leafValues></_>
    <_>
      <internalNodes>
        0 -1 46165 -2.3764432407915592e-03</internalNodes>
      <leafValues>
        3.1639117002487183e-01 -1.9192364811897278e-01</leafValues></_>
    <_>
      <internalNodes>
        0 -1 11107 -1.2769269524142146e-03</internalNodes>
      <leafValues>
        2.7023175358772278e-01 -2.2258758544921875e-01</leafValues></_>
    <_>
      <internalNodes>
        0 -1 4175 -7.1098767220973969e-03</internalNodes>
      <leafValues>
        3.8528600335121155e-01 -1.7838662862777710e-01</leafValues></_>
    <_>
      <internalNodes>
        0 -1 161184 2.2334945970214903e-04</internalNodes>
      <leafValues>
        1.3228929042816162e-01 -4.7305285930633545e-01</leafValues></_>
    <_>
      <internalNodes>
        0 -1 97656 2.2124058887129650e-05</internalNodes>
      <leafValues>
        -2.2502291202545166e-01 2.5977048277854919e-01</leafValues></_>
    <_>
      <internalNodes>
        0 -1 162097 -7.7790371142327785e-04</internalNodes>
      <leafValues>
        -5.4189068078994751e-01 1.2124695628881454e-01</leafValues></_>
    <_>
      <internalNodes>
        0 -1 14177 -2.1685680840164423e-03</internalNodes>
      <leafValues>
        3.1581026315689087e-01 -2.0237103104591370e-01</leafValues></_>
    <_>
      <internalNodes>
        0 -1 124073 -9.2613212764263153e-03</internalNodes>
      <leafValues>
        2.3691275715827942e-01 -2.6447674632072449e-01</leafValues></_>
    <_>
      <internalNodes>
        0 -1 57669 6.4437265973538160e-04</internalNodes>
      <leafValues>
        -1.4325809478759766e-01 5.0027149915695190e-01</leafValues></_>
    <_>
      <internalNodes>
        0 -1 25806 -1.2719139340333641e-04</internalNodes>
      <leafValues>
        -3.9755073189735413e-01 1.7038019001483917e-01</leafValues></_></weakClassifiers></stage4>
</opencv_storage>
