<?xml version="1.0"?>
<opencv_storage>
<stage3>
  <maxWeakCount>14</maxWeakCount>
  <stageThreshold>-1.4550378322601318e+00</stageThreshold>
  <weakClassifiers>
    <_>
      <internalNodes>
        0 -1 138027 6.5911859273910522e-02</internalNodes>
      <leafValues>
        -7.5137513875961304e-01 -2.7102804183959961e-01</leafValues></_>
    <_>
      <internalNodes>
        0 -1 81328 -2.0210985094308853e-03</internalNodes>
      <leafValues>
        1.5891255438327789e-01 -4.0940567851066589e-01</leafValues></_>
    <_>
      <internalNodes>
        0 -1 21818 -9.5692891627550125e-03</internalNodes>
      <leafValues>
        1.8023705482482910e-01 -4.3109092116355896e-01</leafValues></_>
    <_>
      <internalNodes>
        0 -1 126099 -4.4864388182759285e-03</internalNodes>
      <leafValues>
        4.6964365243911743e-01 -1.6452987492084503e-01</leafValues></_>
    <_>
      <internalNodes>
        0 -1 137455 -1.3348021311685443e-03</internalNodes>
      <leafValues>
        3.5439082980155945e-01 -1.6702966392040253e-01</leafValues></_>
    <_>
      <internalNodes>
        0 -1 29478 -4.8478987812995911e-01</internalNodes>
      <leafValues>
        8.2936996221542358e-01 -9.4705894589424133e-02</leafValues></_>
    <_>
      <internalNodes>
        0 -1 83576 -5.4095583036541939e-03</internalNodes>
      <leafValues>
        5.4263460636138916e-01 -1.0595082491636276e-01</leafValues></_>
    <_>
      <internalNodes>
        0 -1 61852 -3.9048168808221817e-02</internalNodes>
      <leafValues>
        3.6728757619857788e-01 -1.7725101113319397e-01</leafValues></_>
    <_>
      <internalNodes>
        0 -1 69337 2.8712291270494461e-02</internalNodes>
      <leafValues>
        -1.0486050695180893e-01 6.1415803432464600e-01</leafValues></_>
    <_>
      <internalNodes>
        0 -1 11483 1.7519670724868774e-01</internalNodes>
      <leafValues>
        -1.9197593629360199e-01 3.8773274421691895e-01</leafValues></_>
    <_>
      <internalNodes>
        0 -1 162051 9.5049738883972168e-03</internalNodes>
      <leafValues>
        9.6103250980377197e-02 -8.6040401458740234e-01</leafValues></_>
    <_>
      <internalNodes>
        0 -1 27423 -2.9030817747116089e-01</internalNodes>
      <leafValues>
        7.2408366203308105e-01 -1.2293213605880737e-01</leafValues></_>
    <_>
      <internalNodes>
        0 -1 120189 3.9653871208429337e-03</internalNodes>
      <leafValues>
        -1.8564835190773010e-01 3.9216867089271545e-01</leafValues></_>
    <_>
      <internalNodes>
        0 -1 139523 2.2676333785057068e-02</internalNodes>
      <leafValues>
        -3.1115859746932983e-01 2.3136761784553528e-01</leafValues></_></weakClassifiers></stage3>
</opencv_storage>
