<?xml version="1.0"?>
<opencv_storage>
<stage1>
  <maxWeakCount>9</maxWeakCount>
  <stageThreshold>-1.4529614448547363e+00</stageThreshold>
  <weakClassifiers>
    <_>
      <internalNodes>
        0 -1 70532 2.2331107407808304e-02</internalNodes>
      <leafValues>
        -8.0151027441024780e-01 -8.9108914136886597e-02</leafValues></_>
    <_>
      <internalNodes>
        0 -1 139544 -5.8961965143680573e-02</internalNodes>
      <leafValues>
        3.7633788585662842e-01 -4.1599047183990479e-01</leafValues></_>
    <_>
      <internalNodes>
        0 -1 20563 -4.1868247091770172e-02</internalNodes>
      <leafValues>
        3.6586228013038635e-01 -3.6300346255302429e-01</leafValues></_>
    <_>
      <internalNodes>
        0 -1 154205 1.6242481768131256e-02</internalNodes>
      <leafValues>
        -2.7700775861740112e-01 3.7966731190681458e-01</leafValues></_>
    <_>
      <internalNodes>
        0 -1 18228 2.3438323289155960e-02</internalNodes>
      <leafValues>
        -1.6118557751178741e-01 5.4813903570175171e-01</leafValues></_>
    <_>
      <internalNodes>
        0 -1 54913 7.4190869927406311e-03</internalNodes>
      <leafValues>
        1.0675293207168579e-01 -8.1316649913787842e-01</leafValues></_>
    <_>
      <internalNodes>
        0 -1 146651 -7.8643690794706345e-03</internalNodes>
      <leafValues>
        3.6170631647109985e-01 -2.2023586928844452e-01</leafValues></_>
    <_>
      <internalNodes>
        0 -1 87210 6.6876942291855812e-03</internalNodes>
      <leafValues>
        -1.4861477911472321e-01 5.2950274944305420e-01</leafValues></_>
    <_>
      <internalNodes>
        0 -1 13394 1.1172894155606627e-03</internalNodes>
      <leafValues>
        1.1850917339324951e-01 -8.0266714096069336e-01</leafValues></_></weakClassifiers></stage1>
</opencv_storage>
